Language model created by QuickLM on Sat Nov 11 15:15:35 EST 2017
Copyright (c) 1996-2010 Carnegie Mellon University and Alexander I. Rudnicky

The model is in standard ARPA format, designed by Doug Paul while he was at MITRE.

The code that was used to produce this language model is available in Open Source.
Please visit http://www.speech.cs.cmu.edu/tools/ for more information

The (fixed) discount mass is 0.5. The backoffs are computed using the ratio method.
This model based on a corpus of 18 sentences and 19 words

\data\
ngram 1=19
ngram 2=32
ngram 3=23

\1-grams:
-0.8381 </s> -0.3010
-0.8381 <s> -0.2329
-2.0934 BEDDING -0.2868
-2.0934 CLOSE -0.2329
-1.4914 DONE -0.2329
-2.0934 DRAWER -0.2868
-2.0934 FETCH -0.2329
-2.0934 GARMENT -0.2868
-2.0934 GRASP -0.2329
-2.0934 HOLD -0.2329
-2.0934 INCORRECT -0.2329
-2.0934 MAKE -0.2329
-2.0934 MEDICINE -0.2868
-2.0934 OPEN -0.2329
-2.0934 PAUSE -0.2329
-2.0934 RELEASE -0.2329
-1.4914 START -0.2868
-1.4914 TASK -0.2329
-2.0934 WRAP -0.2329

\2-grams:
-1.5563 <s> CLOSE 0.0000
-0.9542 <s> DONE 0.0000
-1.5563 <s> FETCH 0.0000
-1.5563 <s> GRASP 0.0000
-1.5563 <s> HOLD 0.0000
-1.5563 <s> INCORRECT 0.0000
-1.5563 <s> MAKE 0.0000
-1.5563 <s> OPEN 0.0000
-1.5563 <s> PAUSE 0.0000
-1.5563 <s> RELEASE 0.0000
-0.9542 <s> START 0.0000
-1.5563 <s> WRAP 0.0000
-0.3010 BEDDING TASK 0.0000
-0.3010 CLOSE </s> -0.3010
-0.3010 DONE </s> -0.3010
-0.3010 DRAWER TASK 0.0000
-0.3010 FETCH </s> -0.3010
-0.3010 GARMENT TASK 0.0000
-0.3010 GRASP </s> -0.3010
-0.3010 HOLD </s> -0.3010
-0.3010 INCORRECT </s> -0.3010
-0.3010 MAKE </s> -0.3010
-0.3010 MEDICINE TASK 0.0000
-0.3010 OPEN </s> -0.3010
-0.3010 PAUSE </s> -0.3010
-0.3010 RELEASE </s> -0.3010
-0.9031 START BEDDING 0.0000
-0.9031 START DRAWER 0.0000
-0.9031 START GARMENT 0.0000
-0.9031 START MEDICINE 0.0000
-0.3010 TASK </s> -0.3010
-0.3010 WRAP </s> -0.3010

\3-grams:
-0.3010 <s> CLOSE </s>
-0.3010 <s> DONE </s>
-0.3010 <s> FETCH </s>
-0.3010 <s> GRASP </s>
-0.3010 <s> HOLD </s>
-0.3010 <s> INCORRECT </s>
-0.3010 <s> MAKE </s>
-0.3010 <s> OPEN </s>
-0.3010 <s> PAUSE </s>
-0.3010 <s> RELEASE </s>
-0.9031 <s> START BEDDING
-0.9031 <s> START DRAWER
-0.9031 <s> START GARMENT
-0.9031 <s> START MEDICINE
-0.3010 <s> WRAP </s>
-0.3010 BEDDING TASK </s>
-0.3010 DRAWER TASK </s>
-0.3010 GARMENT TASK </s>
-0.3010 MEDICINE TASK </s>
-0.3010 START BEDDING TASK
-0.3010 START DRAWER TASK
-0.3010 START GARMENT TASK
-0.3010 START MEDICINE TASK

\end\
