Language model created by QuickLM on Wed Nov 29 17:02:30 EST 2017
Copyright (c) 1996-2010 Carnegie Mellon University and Alexander I. Rudnicky

The model is in standard ARPA format, designed by Doug Paul while he was at MITRE.

The code that was used to produce this language model is available in Open Source.
Please visit http://www.speech.cs.cmu.edu/tools/ for more information

The (fixed) discount mass is 0.5. The backoffs are computed using the ratio method.
This model based on a corpus of 23 sentences and 25 words

\data\
ngram 1=25
ngram 2=50
ngram 3=46

\1-grams:
-0.9031 </s> -0.3010
-0.9031 <s> -0.2152
-1.9638 ARM -0.2430
-1.6628 BEDDING -0.2293
-1.6628 BOTTLE -0.2430
-1.9638 CLOSE -0.2866
-1.6628 DRAWER -0.2293
-2.2648 FETCH -0.2963
-2.2648 FINISHED -0.2891
-1.6628 GARMENT -0.2293
-2.2648 GRASP -0.2915
-1.9638 GREEN -0.2866
-2.2648 INCORRECT -0.2915
-2.2648 MAKE -0.2915
-1.9638 MEDICINE -0.2293
-1.9638 OBSTACLE -0.2430
-1.9638 OPEN -0.2866
-2.2648 PAUSE -0.2915
-2.2648 PURPLE -0.2963
-2.2648 RED -0.2915
-2.2648 RELEASE -0.2915
-1.9638 STOP -0.2817
-1.5658 TASK -0.2430
-2.2648 WRAP -0.2915
-2.2648 YELLOW -0.2915

\2-grams:
-1.6628 <s> BEDDING -0.2430
-1.3617 <s> CLOSE 0.0000
-1.6628 <s> DRAWER -0.2430
-1.6628 <s> FETCH 0.0000
-1.6628 <s> FINISHED 0.0000
-1.6628 <s> GARMENT -0.2430
-1.6628 <s> GRASP 0.0000
-1.3617 <s> GREEN 0.0000
-1.6628 <s> INCORRECT 0.0000
-1.6628 <s> MAKE 0.0000
-1.6628 <s> MEDICINE -0.1761
-1.3617 <s> OPEN 0.0000
-1.6628 <s> PAUSE 0.0000
-1.6628 <s> PURPLE 0.0000
-1.6628 <s> RED 0.0000
-1.6628 <s> RELEASE 0.0000
-1.3617 <s> STOP 0.0000
-1.6628 <s> WRAP 0.0000
-1.6628 <s> YELLOW 0.0000
-0.3010 ARM </s> -0.3010
-0.4260 BEDDING </s> -0.3010
-0.9031 BEDDING TASK 0.0000
-0.3010 BOTTLE </s> -0.3010
-0.6021 CLOSE ARM 0.0000
-0.6021 CLOSE DRAWER -0.0969
-0.4260 DRAWER </s> -0.3010
-0.9031 DRAWER TASK 0.0000
-0.3010 FETCH MEDICINE -0.1761
-0.3010 FINISHED TASK 0.0000
-0.4260 GARMENT </s> -0.3010
-0.9031 GARMENT TASK 0.0000
-0.3010 GRASP BEDDING -0.0969
-0.6021 GREEN BOTTLE 0.0000
-0.6021 GREEN OBSTACLE 0.0000
-0.3010 INCORRECT BOTTLE 0.0000
-0.3010 MAKE BEDDING -0.0969
-0.6021 MEDICINE </s> -0.3010
-0.6021 MEDICINE TASK 0.0000
-0.3010 OBSTACLE </s> -0.3010
-0.6021 OPEN ARM 0.0000
-0.6021 OPEN DRAWER -0.0969
-0.3010 PAUSE BEDDING -0.0969
-0.3010 PURPLE OBSTACLE 0.0000
-0.3010 RED BOTTLE 0.0000
-0.3010 RELEASE GARMENT -0.0969
-0.6021 STOP DRAWER -0.0969
-0.6021 STOP GARMENT -0.0969
-0.3010 TASK </s> -0.3010
-0.3010 WRAP GARMENT -0.0969
-0.3010 YELLOW BOTTLE 0.0000

\3-grams:
-0.3010 <s> BEDDING TASK
-0.6021 <s> CLOSE ARM
-0.6021 <s> CLOSE DRAWER
-0.3010 <s> DRAWER TASK
-0.3010 <s> FETCH MEDICINE
-0.3010 <s> FINISHED TASK
-0.3010 <s> GARMENT TASK
-0.3010 <s> GRASP BEDDING
-0.6021 <s> GREEN BOTTLE
-0.6021 <s> GREEN OBSTACLE
-0.3010 <s> INCORRECT BOTTLE
-0.3010 <s> MAKE BEDDING
-0.3010 <s> MEDICINE TASK
-0.6021 <s> OPEN ARM
-0.6021 <s> OPEN DRAWER
-0.3010 <s> PAUSE BEDDING
-0.3010 <s> PURPLE OBSTACLE
-0.3010 <s> RED BOTTLE
-0.3010 <s> RELEASE GARMENT
-0.6021 <s> STOP DRAWER
-0.6021 <s> STOP GARMENT
-0.3010 <s> WRAP GARMENT
-0.3010 <s> YELLOW BOTTLE
-0.3010 BEDDING TASK </s>
-0.3010 CLOSE ARM </s>
-0.3010 CLOSE DRAWER </s>
-0.3010 DRAWER TASK </s>
-0.3010 FETCH MEDICINE </s>
-0.3010 FINISHED TASK </s>
-0.3010 GARMENT TASK </s>
-0.3010 GRASP BEDDING </s>
-0.3010 GREEN BOTTLE </s>
-0.3010 GREEN OBSTACLE </s>
-0.3010 INCORRECT BOTTLE </s>
-0.3010 MAKE BEDDING </s>
-0.3010 MEDICINE TASK </s>
-0.3010 OPEN ARM </s>
-0.3010 OPEN DRAWER </s>
-0.3010 PAUSE BEDDING </s>
-0.3010 PURPLE OBSTACLE </s>
-0.3010 RED BOTTLE </s>
-0.3010 RELEASE GARMENT </s>
-0.3010 STOP DRAWER </s>
-0.3010 STOP GARMENT </s>
-0.3010 WRAP GARMENT </s>
-0.3010 YELLOW BOTTLE </s>

\end\
