Language model created by QuickLM on Sat Nov 11 15:30:29 EST 2017
Copyright (c) 1996-2010 Carnegie Mellon University and Alexander I. Rudnicky

The model is in standard ARPA format, designed by Doug Paul while he was at MITRE.

The code that was used to produce this language model is available in Open Source.
Please visit http://www.speech.cs.cmu.edu/tools/ for more information

The (fixed) discount mass is 0.5. The backoffs are computed using the ratio method.
This model based on a corpus of 4 sentences and 6 words

\data\
ngram 1=6
ngram 2=8
ngram 3=4

\1-grams:
-0.7782 </s> -0.3010
-0.7782 <s> -0.2218
-1.3802 DONE -0.2218
-1.3802 HOLD -0.2218
-1.3802 RELEASE -0.2218
-1.3802 WRAP -0.2218

\2-grams:
-0.9031 <s> DONE 0.0000
-0.9031 <s> HOLD 0.0000
-0.9031 <s> RELEASE 0.0000
-0.9031 <s> WRAP 0.0000
-0.3010 DONE </s> -0.3010
-0.3010 HOLD </s> -0.3010
-0.3010 RELEASE </s> -0.3010
-0.3010 WRAP </s> -0.3010

\3-grams:
-0.3010 <s> DONE </s>
-0.3010 <s> HOLD </s>
-0.3010 <s> RELEASE </s>
-0.3010 <s> WRAP </s>

\end\
