Language model created by QuickLM on Wed Nov 29 16:48:28 EST 2017
Copyright (c) 1996-2010 Carnegie Mellon University and Alexander I. Rudnicky

The model is in standard ARPA format, designed by Doug Paul while he was at MITRE.

The code that was used to produce this language model is available in Open Source.
Please visit http://www.speech.cs.cmu.edu/tools/ for more information

The (fixed) discount mass is 0.5. The backoffs are computed using the ratio method.
This model based on a corpus of 23 sentences and 25 words

\data\
ngram 1=25
ngram 2=43
ngram 3=33

\1-grams:
-0.8531 </s> -0.3010
-0.8531 <s> -0.2354
-2.2148 BEDDING -0.2903
-1.7377 BOTTLE -0.2354
-1.9138 CLOSE -0.2354
-2.2148 DRAWER -0.2903
-2.2148 FETCH -0.2354
-2.2148 FINISHED -0.2354
-2.2148 GARMENT -0.2903
-2.2148 GRASP -0.2354
-1.9138 GREEN -0.2876
-2.2148 INCORRECT -0.2354
-2.2148 MAKE -0.2354
-2.2148 MEDICINE -0.2903
-1.9138 OBSTACLE -0.2354
-1.9138 OPEN -0.2354
-2.2148 PAUSE -0.2354
-2.2148 PURPLE -0.2957
-2.2148 RED -0.2930
-2.2148 RELEASE -0.2354
-1.6128 START -0.2903
-1.9138 STOP -0.2354
-1.6128 TASK -0.2354
-2.2148 WRAP -0.2354
-2.2148 YELLOW -0.2930

\2-grams:
-1.3617 <s> CLOSE 0.0000
-1.6628 <s> FETCH 0.0000
-1.6628 <s> FINISHED 0.0000
-1.6628 <s> GRASP 0.0000
-1.3617 <s> GREEN 0.0000
-1.6628 <s> INCORRECT 0.0000
-1.6628 <s> MAKE 0.0000
-1.3617 <s> OPEN 0.0000
-1.6628 <s> PAUSE 0.0000
-1.6628 <s> PURPLE 0.0000
-1.6628 <s> RED 0.0000
-1.6628 <s> RELEASE 0.0000
-1.0607 <s> START 0.0000
-1.3617 <s> STOP 0.0000
-1.6628 <s> WRAP 0.0000
-1.6628 <s> YELLOW 0.0000
-0.3010 BEDDING TASK 0.0000
-0.3010 BOTTLE </s> -0.3010
-0.3010 CLOSE </s> -0.3010
-0.3010 DRAWER TASK 0.0000
-0.3010 FETCH </s> -0.3010
-0.3010 FINISHED </s> -0.3010
-0.3010 GARMENT TASK 0.0000
-0.3010 GRASP </s> -0.3010
-0.6021 GREEN BOTTLE 0.0000
-0.6021 GREEN OBSTACLE 0.0000
-0.3010 INCORRECT </s> -0.3010
-0.3010 MAKE </s> -0.3010
-0.3010 MEDICINE TASK 0.0000
-0.3010 OBSTACLE </s> -0.3010
-0.3010 OPEN </s> -0.3010
-0.3010 PAUSE </s> -0.3010
-0.3010 PURPLE OBSTACLE 0.0000
-0.3010 RED BOTTLE 0.0000
-0.3010 RELEASE </s> -0.3010
-0.9031 START BEDDING 0.0000
-0.9031 START DRAWER 0.0000
-0.9031 START GARMENT 0.0000
-0.9031 START MEDICINE 0.0000
-0.3010 STOP </s> -0.3010
-0.3010 TASK </s> -0.3010
-0.3010 WRAP </s> -0.3010
-0.3010 YELLOW BOTTLE 0.0000

\3-grams:
-0.3010 <s> CLOSE </s>
-0.3010 <s> FETCH </s>
-0.3010 <s> FINISHED </s>
-0.3010 <s> GRASP </s>
-0.6021 <s> GREEN BOTTLE
-0.6021 <s> GREEN OBSTACLE
-0.3010 <s> INCORRECT </s>
-0.3010 <s> MAKE </s>
-0.3010 <s> OPEN </s>
-0.3010 <s> PAUSE </s>
-0.3010 <s> PURPLE OBSTACLE
-0.3010 <s> RED BOTTLE
-0.3010 <s> RELEASE </s>
-0.9031 <s> START BEDDING
-0.9031 <s> START DRAWER
-0.9031 <s> START GARMENT
-0.9031 <s> START MEDICINE
-0.3010 <s> STOP </s>
-0.3010 <s> WRAP </s>
-0.3010 <s> YELLOW BOTTLE
-0.3010 BEDDING TASK </s>
-0.3010 DRAWER TASK </s>
-0.3010 GARMENT TASK </s>
-0.3010 GREEN BOTTLE </s>
-0.3010 GREEN OBSTACLE </s>
-0.3010 MEDICINE TASK </s>
-0.3010 PURPLE OBSTACLE </s>
-0.3010 RED BOTTLE </s>
-0.3010 START BEDDING TASK
-0.3010 START DRAWER TASK
-0.3010 START GARMENT TASK
-0.3010 START MEDICINE TASK
-0.3010 YELLOW BOTTLE </s>

\end\
