Language model created by QuickLM on Wed Nov 29 11:19:33 EST 2017
Copyright (c) 1996-2010 Carnegie Mellon University and Alexander I. Rudnicky

The model is in standard ARPA format, designed by Doug Paul while he was at MITRE.

The code that was used to produce this language model is available in Open Source.
Please visit http://www.speech.cs.cmu.edu/tools/ for more information

The (fixed) discount mass is 0.5. The backoffs are computed using the ratio method.
This model based on a corpus of 124 sentences and 124 words

\data\
ngram 1=124
ngram 2=241
ngram 3=132

\1-grams:
-0.7931 </s> -0.3010
-0.7931 <s> -0.2248
-2.8865 A -0.2248
-2.8865 ABOUT -0.2248
-2.8865 ALL -0.2248
-2.8865 ALSO -0.2248
-2.8865 AND -0.2248
-2.8865 AS -0.2248
-2.8865 AT -0.2248
-2.8865 BE -0.2248
-2.8865 BECAUSE -0.2248
-2.8865 BEDDING -0.2988
-2.4094 BOTTLE -0.2248
-2.8865 BUT -0.2248
-2.8865 BY -0.2248
-2.8865 CAN -0.2248
-2.5855 CLOSE -0.2248
-2.8865 COME -0.2248
-2.8865 COULD -0.2248
-2.8865 DAY -0.2248
-2.8865 DO -0.2248
-2.5855 DONE -0.2248
-2.8865 DRAWER -0.2988
-2.8865 EVEN -0.2248
-2.8865 FETCH -0.2248
-2.8865 FIND -0.2248
-2.8865 FIRST -0.2248
-2.8865 FOR -0.2248
-2.8865 FROM -0.2248
-2.8865 GARMENT -0.2988
-2.8865 GET -0.2248
-2.8865 GIVE -0.2248
-2.8865 GO -0.2248
-2.8865 GRASP -0.2248
-2.5855 GREEN -0.2982
-2.8865 HAVE -0.2248
-2.8865 HE -0.2248
-2.8865 HER -0.2248
-2.8865 HERE -0.2248
-2.8865 HIM -0.2248
-2.8865 HIS -0.2248
-2.8865 HOW -0.2248
-2.8865 I -0.2248
-2.8865 IF -0.2248
-2.8865 IN -0.2248
-2.8865 INCORRECT -0.2248
-2.8865 INTO -0.2248
-2.8865 IT -0.2248
-2.8865 ITS -0.2248
-2.8865 JUST -0.2248
-2.8865 KNOW -0.2248
-2.8865 LIKE -0.2248
-2.8865 LOOK -0.2248
-2.5855 MAKE -0.2248
-2.8865 MAN -0.2248
-2.8865 MANY -0.2248
-2.8865 ME -0.2248
-2.8865 MEDICINE -0.2988
-2.8865 MORE -0.2248
-2.8865 MY -0.2248
-2.8865 NEW -0.2248
-2.8865 NO -0.2248
-2.8865 NOT -0.2248
-2.8865 NOW -0.2248
-2.5855 OBSTACLE -0.2248
-2.8865 OF -0.2248
-2.8865 ON -0.2248
-2.8865 ONE -0.2248
-2.8865 ONLY -0.2248
-2.5855 OPEN -0.2248
-2.8865 OR -0.2248
-2.8865 OTHER -0.2248
-2.8865 OUR -0.2248
-2.8865 OUT -0.2248
-2.8865 PAUSE -0.2248
-2.8865 PEOPLE -0.2248
-2.8865 PURPLE -0.2999
-2.8865 RED -0.2993
-2.8865 RELEASE -0.2248
-2.8865 SAY -0.2248
-2.8865 SEE -0.2248
-2.8865 SHE -0.2248
-2.8865 SO -0.2248
-2.8865 SOME -0.2248
-2.2844 START -0.2988
-2.5855 STOP -0.2248
-2.8865 TAKE -0.2248
-2.2844 TASK -0.2248
-2.8865 TELL -0.2248
-2.8865 THAN -0.2248
-2.8865 THAT -0.2248
-2.8865 THE -0.2248
-2.8865 THEIR -0.2248
-2.8865 THEM -0.2248
-2.8865 THEN -0.2248
-2.8865 THERE -0.2248
-2.8865 THESE -0.2248
-2.8865 THEY -0.2248
-2.8865 THING -0.2248
-2.8865 THINK -0.2248
-2.8865 THIS -0.2248
-2.8865 THOSE -0.2248
-2.8865 TIME -0.2248
-2.8865 TO -0.2248
-2.8865 TWO -0.2248
-2.8865 UP -0.2248
-2.8865 USE -0.2248
-2.8865 VERY -0.2248
-2.8865 WANT -0.2248
-2.8865 WAY -0.2248
-2.8865 WE -0.2248
-2.8865 WELL -0.2248
-2.8865 WHAT -0.2248
-2.8865 WHEN -0.2248
-2.8865 WHICH -0.2248
-2.8865 WHO -0.2248
-2.8865 WILL -0.2248
-2.8865 WITH -0.2248
-2.8865 WOULD -0.2248
-2.8865 WRAP -0.2248
-2.8865 YEAR -0.2248
-2.8865 YELLOW -0.2993
-2.8865 YOU -0.2248
-2.8865 YOUR -0.2248

\2-grams:
-2.3945 <s> A 0.0000
-2.3945 <s> ABOUT 0.0000
-2.3945 <s> ALL 0.0000
-2.3945 <s> ALSO 0.0000
-2.3945 <s> AND 0.0000
-2.3945 <s> AS 0.0000
-2.3945 <s> AT 0.0000
-2.3945 <s> BE 0.0000
-2.3945 <s> BECAUSE 0.0000
-2.3945 <s> BUT 0.0000
-2.3945 <s> BY 0.0000
-2.3945 <s> CAN 0.0000
-2.0934 <s> CLOSE 0.0000
-2.3945 <s> COME 0.0000
-2.3945 <s> COULD 0.0000
-2.3945 <s> DAY 0.0000
-2.3945 <s> DO 0.0000
-2.0934 <s> DONE 0.0000
-2.3945 <s> EVEN 0.0000
-2.3945 <s> FETCH 0.0000
-2.3945 <s> FIND 0.0000
-2.3945 <s> FIRST 0.0000
-2.3945 <s> FOR 0.0000
-2.3945 <s> FROM 0.0000
-2.3945 <s> GET 0.0000
-2.3945 <s> GIVE 0.0000
-2.3945 <s> GO 0.0000
-2.3945 <s> GRASP 0.0000
-2.0934 <s> GREEN 0.0000
-2.3945 <s> HAVE 0.0000
-2.3945 <s> HE 0.0000
-2.3945 <s> HER 0.0000
-2.3945 <s> HERE 0.0000
-2.3945 <s> HIM 0.0000
-2.3945 <s> HIS 0.0000
-2.3945 <s> HOW 0.0000
-2.3945 <s> I 0.0000
-2.3945 <s> IF 0.0000
-2.3945 <s> IN 0.0000
-2.3945 <s> INCORRECT 0.0000
-2.3945 <s> INTO 0.0000
-2.3945 <s> IT 0.0000
-2.3945 <s> ITS 0.0000
-2.3945 <s> JUST 0.0000
-2.3945 <s> KNOW 0.0000
-2.3945 <s> LIKE 0.0000
-2.3945 <s> LOOK 0.0000
-2.0934 <s> MAKE 0.0000
-2.3945 <s> MAN 0.0000
-2.3945 <s> MANY 0.0000
-2.3945 <s> ME 0.0000
-2.3945 <s> MORE 0.0000
-2.3945 <s> MY 0.0000
-2.3945 <s> NEW 0.0000
-2.3945 <s> NO 0.0000
-2.3945 <s> NOT 0.0000
-2.3945 <s> NOW 0.0000
-2.3945 <s> OF 0.0000
-2.3945 <s> ON 0.0000
-2.3945 <s> ONE 0.0000
-2.3945 <s> ONLY 0.0000
-2.0934 <s> OPEN 0.0000
-2.3945 <s> OR 0.0000
-2.3945 <s> OTHER 0.0000
-2.3945 <s> OUR 0.0000
-2.3945 <s> OUT 0.0000
-2.3945 <s> PAUSE 0.0000
-2.3945 <s> PEOPLE 0.0000
-2.3945 <s> PURPLE 0.0000
-2.3945 <s> RED 0.0000
-2.3945 <s> RELEASE 0.0000
-2.3945 <s> SAY 0.0000
-2.3945 <s> SEE 0.0000
-2.3945 <s> SHE 0.0000
-2.3945 <s> SO 0.0000
-2.3945 <s> SOME 0.0000
-1.7924 <s> START 0.0000
-2.0934 <s> STOP 0.0000
-2.3945 <s> TAKE 0.0000
-2.3945 <s> TELL 0.0000
-2.3945 <s> THAN 0.0000
-2.3945 <s> THAT 0.0000
-2.3945 <s> THE 0.0000
-2.3945 <s> THEIR 0.0000
-2.3945 <s> THEM 0.0000
-2.3945 <s> THEN 0.0000
-2.3945 <s> THERE 0.0000
-2.3945 <s> THESE 0.0000
-2.3945 <s> THEY 0.0000
-2.3945 <s> THING 0.0000
-2.3945 <s> THINK 0.0000
-2.3945 <s> THIS 0.0000
-2.3945 <s> THOSE 0.0000
-2.3945 <s> TIME 0.0000
-2.3945 <s> TO 0.0000
-2.3945 <s> TWO 0.0000
-2.3945 <s> UP 0.0000
-2.3945 <s> USE 0.0000
-2.3945 <s> VERY 0.0000
-2.3945 <s> WANT 0.0000
-2.3945 <s> WAY 0.0000
-2.3945 <s> WE 0.0000
-2.3945 <s> WELL 0.0000
-2.3945 <s> WHAT 0.0000
-2.3945 <s> WHEN 0.0000
-2.3945 <s> WHICH 0.0000
-2.3945 <s> WHO 0.0000
-2.3945 <s> WILL 0.0000
-2.3945 <s> WITH 0.0000
-2.3945 <s> WOULD 0.0000
-2.3945 <s> WRAP 0.0000
-2.3945 <s> YEAR 0.0000
-2.3945 <s> YELLOW 0.0000
-2.3945 <s> YOU 0.0000
-2.3945 <s> YOUR 0.0000
-0.3010 A </s> -0.3010
-0.3010 ABOUT </s> -0.3010
-0.3010 ALL </s> -0.3010
-0.3010 ALSO </s> -0.3010
-0.3010 AND </s> -0.3010
-0.3010 AS </s> -0.3010
-0.3010 AT </s> -0.3010
-0.3010 BE </s> -0.3010
-0.3010 BECAUSE </s> -0.3010
-0.3010 BEDDING TASK 0.0000
-0.3010 BOTTLE </s> -0.3010
-0.3010 BUT </s> -0.3010
-0.3010 BY </s> -0.3010
-0.3010 CAN </s> -0.3010
-0.3010 CLOSE </s> -0.3010
-0.3010 COME </s> -0.3010
-0.3010 COULD </s> -0.3010
-0.3010 DAY </s> -0.3010
-0.3010 DO </s> -0.3010
-0.3010 DONE </s> -0.3010
-0.3010 DRAWER TASK 0.0000
-0.3010 EVEN </s> -0.3010
-0.3010 FETCH </s> -0.3010
-0.3010 FIND </s> -0.3010
-0.3010 FIRST </s> -0.3010
-0.3010 FOR </s> -0.3010
-0.3010 FROM </s> -0.3010
-0.3010 GARMENT TASK 0.0000
-0.3010 GET </s> -0.3010
-0.3010 GIVE </s> -0.3010
-0.3010 GO </s> -0.3010
-0.3010 GRASP </s> -0.3010
-0.6021 GREEN BOTTLE 0.0000
-0.6021 GREEN OBSTACLE 0.0000
-0.3010 HAVE </s> -0.3010
-0.3010 HE </s> -0.3010
-0.3010 HER </s> -0.3010
-0.3010 HERE </s> -0.3010
-0.3010 HIM </s> -0.3010
-0.3010 HIS </s> -0.3010
-0.3010 HOW </s> -0.3010
-0.3010 I </s> -0.3010
-0.3010 IF </s> -0.3010
-0.3010 IN </s> -0.3010
-0.3010 INCORRECT </s> -0.3010
-0.3010 INTO </s> -0.3010
-0.3010 IT </s> -0.3010
-0.3010 ITS </s> -0.3010
-0.3010 JUST </s> -0.3010
-0.3010 KNOW </s> -0.3010
-0.3010 LIKE </s> -0.3010
-0.3010 LOOK </s> -0.3010
-0.3010 MAKE </s> -0.3010
-0.3010 MAN </s> -0.3010
-0.3010 MANY </s> -0.3010
-0.3010 ME </s> -0.3010
-0.3010 MEDICINE TASK 0.0000
-0.3010 MORE </s> -0.3010
-0.3010 MY </s> -0.3010
-0.3010 NEW </s> -0.3010
-0.3010 NO </s> -0.3010
-0.3010 NOT </s> -0.3010
-0.3010 NOW </s> -0.3010
-0.3010 OBSTACLE </s> -0.3010
-0.3010 OF </s> -0.3010
-0.3010 ON </s> -0.3010
-0.3010 ONE </s> -0.3010
-0.3010 ONLY </s> -0.3010
-0.3010 OPEN </s> -0.3010
-0.3010 OR </s> -0.3010
-0.3010 OTHER </s> -0.3010
-0.3010 OUR </s> -0.3010
-0.3010 OUT </s> -0.3010
-0.3010 PAUSE </s> -0.3010
-0.3010 PEOPLE </s> -0.3010
-0.3010 PURPLE OBSTACLE 0.0000
-0.3010 RED BOTTLE 0.0000
-0.3010 RELEASE </s> -0.3010
-0.3010 SAY </s> -0.3010
-0.3010 SEE </s> -0.3010
-0.3010 SHE </s> -0.3010
-0.3010 SO </s> -0.3010
-0.3010 SOME </s> -0.3010
-0.9031 START BEDDING 0.0000
-0.9031 START DRAWER 0.0000
-0.9031 START GARMENT 0.0000
-0.9031 START MEDICINE 0.0000
-0.3010 STOP </s> -0.3010
-0.3010 TAKE </s> -0.3010
-0.3010 TASK </s> -0.3010
-0.3010 TELL </s> -0.3010
-0.3010 THAN </s> -0.3010
-0.3010 THAT </s> -0.3010
-0.3010 THE </s> -0.3010
-0.3010 THEIR </s> -0.3010
-0.3010 THEM </s> -0.3010
-0.3010 THEN </s> -0.3010
-0.3010 THERE </s> -0.3010
-0.3010 THESE </s> -0.3010
-0.3010 THEY </s> -0.3010
-0.3010 THING </s> -0.3010
-0.3010 THINK </s> -0.3010
-0.3010 THIS </s> -0.3010
-0.3010 THOSE </s> -0.3010
-0.3010 TIME </s> -0.3010
-0.3010 TO </s> -0.3010
-0.3010 TWO </s> -0.3010
-0.3010 UP </s> -0.3010
-0.3010 USE </s> -0.3010
-0.3010 VERY </s> -0.3010
-0.3010 WANT </s> -0.3010
-0.3010 WAY </s> -0.3010
-0.3010 WE </s> -0.3010
-0.3010 WELL </s> -0.3010
-0.3010 WHAT </s> -0.3010
-0.3010 WHEN </s> -0.3010
-0.3010 WHICH </s> -0.3010
-0.3010 WHO </s> -0.3010
-0.3010 WILL </s> -0.3010
-0.3010 WITH </s> -0.3010
-0.3010 WOULD </s> -0.3010
-0.3010 WRAP </s> -0.3010
-0.3010 YEAR </s> -0.3010
-0.3010 YELLOW BOTTLE 0.0000
-0.3010 YOU </s> -0.3010
-0.3010 YOUR </s> -0.3010

\3-grams:
-0.3010 <s> A </s>
-0.3010 <s> ABOUT </s>
-0.3010 <s> ALL </s>
-0.3010 <s> ALSO </s>
-0.3010 <s> AND </s>
-0.3010 <s> AS </s>
-0.3010 <s> AT </s>
-0.3010 <s> BE </s>
-0.3010 <s> BECAUSE </s>
-0.3010 <s> BUT </s>
-0.3010 <s> BY </s>
-0.3010 <s> CAN </s>
-0.3010 <s> CLOSE </s>
-0.3010 <s> COME </s>
-0.3010 <s> COULD </s>
-0.3010 <s> DAY </s>
-0.3010 <s> DO </s>
-0.3010 <s> DONE </s>
-0.3010 <s> EVEN </s>
-0.3010 <s> FETCH </s>
-0.3010 <s> FIND </s>
-0.3010 <s> FIRST </s>
-0.3010 <s> FOR </s>
-0.3010 <s> FROM </s>
-0.3010 <s> GET </s>
-0.3010 <s> GIVE </s>
-0.3010 <s> GO </s>
-0.3010 <s> GRASP </s>
-0.6021 <s> GREEN BOTTLE
-0.6021 <s> GREEN OBSTACLE
-0.3010 <s> HAVE </s>
-0.3010 <s> HE </s>
-0.3010 <s> HER </s>
-0.3010 <s> HERE </s>
-0.3010 <s> HIM </s>
-0.3010 <s> HIS </s>
-0.3010 <s> HOW </s>
-0.3010 <s> I </s>
-0.3010 <s> IF </s>
-0.3010 <s> IN </s>
-0.3010 <s> INCORRECT </s>
-0.3010 <s> INTO </s>
-0.3010 <s> IT </s>
-0.3010 <s> ITS </s>
-0.3010 <s> JUST </s>
-0.3010 <s> KNOW </s>
-0.3010 <s> LIKE </s>
-0.3010 <s> LOOK </s>
-0.3010 <s> MAKE </s>
-0.3010 <s> MAN </s>
-0.3010 <s> MANY </s>
-0.3010 <s> ME </s>
-0.3010 <s> MORE </s>
-0.3010 <s> MY </s>
-0.3010 <s> NEW </s>
-0.3010 <s> NO </s>
-0.3010 <s> NOT </s>
-0.3010 <s> NOW </s>
-0.3010 <s> OF </s>
-0.3010 <s> ON </s>
-0.3010 <s> ONE </s>
-0.3010 <s> ONLY </s>
-0.3010 <s> OPEN </s>
-0.3010 <s> OR </s>
-0.3010 <s> OTHER </s>
-0.3010 <s> OUR </s>
-0.3010 <s> OUT </s>
-0.3010 <s> PAUSE </s>
-0.3010 <s> PEOPLE </s>
-0.3010 <s> PURPLE OBSTACLE
-0.3010 <s> RED BOTTLE
-0.3010 <s> RELEASE </s>
-0.3010 <s> SAY </s>
-0.3010 <s> SEE </s>
-0.3010 <s> SHE </s>
-0.3010 <s> SO </s>
-0.3010 <s> SOME </s>
-0.9031 <s> START BEDDING
-0.9031 <s> START DRAWER
-0.9031 <s> START GARMENT
-0.9031 <s> START MEDICINE
-0.3010 <s> STOP </s>
-0.3010 <s> TAKE </s>
-0.3010 <s> TELL </s>
-0.3010 <s> THAN </s>
-0.3010 <s> THAT </s>
-0.3010 <s> THE </s>
-0.3010 <s> THEIR </s>
-0.3010 <s> THEM </s>
-0.3010 <s> THEN </s>
-0.3010 <s> THERE </s>
-0.3010 <s> THESE </s>
-0.3010 <s> THEY </s>
-0.3010 <s> THING </s>
-0.3010 <s> THINK </s>
-0.3010 <s> THIS </s>
-0.3010 <s> THOSE </s>
-0.3010 <s> TIME </s>
-0.3010 <s> TO </s>
-0.3010 <s> TWO </s>
-0.3010 <s> UP </s>
-0.3010 <s> USE </s>
-0.3010 <s> VERY </s>
-0.3010 <s> WANT </s>
-0.3010 <s> WAY </s>
-0.3010 <s> WE </s>
-0.3010 <s> WELL </s>
-0.3010 <s> WHAT </s>
-0.3010 <s> WHEN </s>
-0.3010 <s> WHICH </s>
-0.3010 <s> WHO </s>
-0.3010 <s> WILL </s>
-0.3010 <s> WITH </s>
-0.3010 <s> WOULD </s>
-0.3010 <s> WRAP </s>
-0.3010 <s> YEAR </s>
-0.3010 <s> YELLOW BOTTLE
-0.3010 <s> YOU </s>
-0.3010 <s> YOUR </s>
-0.3010 BEDDING TASK </s>
-0.3010 DRAWER TASK </s>
-0.3010 GARMENT TASK </s>
-0.3010 GREEN BOTTLE </s>
-0.3010 GREEN OBSTACLE </s>
-0.3010 MEDICINE TASK </s>
-0.3010 PURPLE OBSTACLE </s>
-0.3010 RED BOTTLE </s>
-0.3010 START BEDDING TASK
-0.3010 START DRAWER TASK
-0.3010 START GARMENT TASK
-0.3010 START MEDICINE TASK
-0.3010 YELLOW BOTTLE </s>

\end\
